<?xml version="1.0"?>
<opencv_storage>
<cascade>
  <stageType>BOOST</stageType>
  <featureType>LBP</featureType>
  <height>24</height>
  <width>24</width>
  <stageParams>
    <boostType>GAB</boostType>
    <minHitRate>9.9500000476837158e-01</minHitRate>
    <maxFalseAlarm>5.0000000000000000e-01</maxFalseAlarm>
    <weightTrimRate>9.4999999999999996e-01</weightTrimRate>
    <maxDepth>1</maxDepth>
    <maxWeakCount>100</maxWeakCount></stageParams>
  <featureParams>
    <maxCatCount>256</maxCatCount>
    <featSize>1</featSize></featureParams>
  <stageNum>9</stageNum>
  <stages>
    <!-- stage 0 -->
    <_>
      <maxWeakCount>2</maxWeakCount>
      <stageThreshold>-1.3192328810691833e-01</stageThreshold>
      <weakClassifiers>
        <_>
          <internalNodes>
            0 -1 14 1370617326 -707542063 -1861103113 -204357613
            -2076062772 -1113012034 -997490456 -3585</internalNodes>
          <leafValues>
            -9.2616522312164307e-01 8.3381801843643188e-01</leafValues></_>
        <_>
          <internalNodes>
            0 -1 11 -66913032 -49233792 -48424613 -38538839 -125641288
            -671048576 -74854482 -1310721</internalNodes>
          <leafValues>
            -9.1313165426254272e-01 7.9424190521240234e-01</leafValues></_></weakClassifiers></_>
    <!-- stage 1 -->
    <_>
      <maxWeakCount>2</maxWeakCount>
      <stageThreshold>-1.3435557484626770e-01</stageThreshold>
      <weakClassifiers>
        <_>
          <internalNodes>
            0 -1 9 -246153234 -150761722 -264138241 -176950822
            -134743057 -685925 -251684097 -67112993</internalNodes>
          <leafValues>
            -8.6397057771682739e-01 7.8398662805557251e-01</leafValues></_>
        <_>
          <internalNodes>
            0 -1 20 -67961348 1899181335 -343870246 -1224492630
            -376966664 -107240497 -70319878 -4197377</internalNodes>
          <leafValues>
            -8.7720918655395508e-01 7.2961503267288208e-01</leafValues></_></weakClassifiers></_>
    <!-- stage 2 -->
    <_>
      <maxWeakCount>2</maxWeakCount>
      <stageThreshold>-1.0451155155897141e-01</stageThreshold>
      <weakClassifiers>
        <_>
          <internalNodes>
            0 -1 12 -661064204 -37882379 -560955435 -697967 -1130233857
            -104084035 -1125340417 -548181</internalNodes>
          <leafValues>
            -8.0622220039367676e-01 7.8055077791213989e-01</leafValues></_>
        <_>
          <internalNodes>
            0 -1 23 -2272 -2657371 -1409028226 -214441661 -352367574
            -285477537 -1460673814 -92275977</internalNodes>
          <leafValues>
            -8.5593587160110474e-01 7.0171064138412476e-01</leafValues></_></weakClassifiers></_>
    <!-- stage 3 -->
    <_>
      <maxWeakCount>3</maxWeakCount>
      <stageThreshold>-1.0051922798156738e+00</stageThreshold>
      <weakClassifiers>
        <_>
          <internalNodes>
            0 -1 16 -2097153 -21975041 -33555108 -986190 -36831755
            -864747659 -36832004 -50987033</internalNodes>
          <leafValues>
            -8.0308532714843750e-01 7.4683547019958496e-01</leafValues></_>
        <_>
          <internalNodes>
            0 -1 10 -167772676 -70075393 -37490472 -1179403542 341773819
            -554706497 -974156600 -67118373</internalNodes>
          <leafValues>
            -8.2554358243942261e-01 6.9464987516403198e-01</leafValues></_>
        <_>
          <internalNodes>
            0 -1 19 -553656756 -543176875 -543050017 -68157705
            -673980705 -822126575 -537933057 -889195777</internalNodes>
          <leafValues>
            -8.9675682783126831e-01 6.2636572122573853e-01</leafValues></_></weakClassifiers></_>
    <!-- stage 4 -->
    <_>
      <maxWeakCount>3</maxWeakCount>
      <stageThreshold>-8.2945924997329712e-01</stageThreshold>
      <weakClassifiers>
        <_>
          <internalNodes>
            0 -1 1 -536887045 -536903446 -536883489 -536936225 -33692419
            -47226 -4353 -805318961</internalNodes>
          <leafValues>
            -7.3458904027938843e-01 7.6675605773925781e-01</leafValues></_>
        <_>
          <internalNodes>
            0 -1 4 -26819926 -1598560 -637871105 -135182744 -1917874245
            -20275525 -52376321 -663815</internalNodes>
          <leafValues>
            -7.3755753040313721e-01 7.2035217285156250e-01</leafValues></_>
        <_>
          <internalNodes>
            0 -1 8 -611591974 -67659580 -235970593 -538067505 -553604664
            -74540342 -68171313 -275775665</internalNodes>
          <leafValues>
            -8.0924814939498901e-01 6.4268726110458374e-01</leafValues></_></weakClassifiers></_>
    <!-- stage 5 -->
    <_>
      <maxWeakCount>2</maxWeakCount>
      <stageThreshold>-2.0374211668968201e-01</stageThreshold>
      <weakClassifiers>
        <_>
          <internalNodes>
            0 -1 5 -234688270 1393751539 -10617377 -11141357 -43781897
            -67645513 -16784897 -2109233</internalNodes>
          <leafValues>
            -7.8256881237030029e-01 7.1261489391326904e-01</leafValues></_>
        <_>
          <internalNodes>
            0 -1 13 -210505272 1474241287 -101581830 -1084454 -8396833
            -67414177 -805970209 -536879137</internalNodes>
          <leafValues>
            -8.7164366245269775e-01 5.7882666587829590e-01</leafValues></_></weakClassifiers></_>
    <!-- stage 6 -->
    <_>
      <maxWeakCount>3</maxWeakCount>
      <stageThreshold>-7.4999433755874634e-01</stageThreshold>
      <weakClassifiers>
        <_>
          <internalNodes>
            0 -1 3 1463549951 -84490 -16388 -65538 -50331652 -59441156
            -65540 -1</internalNodes>
          <leafValues>
            -6.5751212835311890e-01 7.7597713470458984e-01</leafValues></_>
        <_>
          <internalNodes>
            0 -1 21 -153092168 -262305 229366697 -2817 -487853907
            867905577 -1464865361 -206570577</internalNodes>
          <leafValues>
            -7.8012895584106445e-01 6.5318894386291504e-01</leafValues></_>
        <_>
          <internalNodes>
            0 -1 17 -344985821 -276563046 -2245645 -69763637 -408958997
            -2019701365 -386532165 -1999634517</internalNodes>
          <leafValues>
            -7.4451762437820435e-01 6.8764674663543701e-01</leafValues></_></weakClassifiers></_>
    <!-- stage 7 -->
    <_>
      <maxWeakCount>4</maxWeakCount>
      <stageThreshold>-4.0550589561462402e-01</stageThreshold>
      <weakClassifiers>
        <_>
          <internalNodes>
            0 -1 15 -67174467 -143265931 -35856388 -8593410 -321519681
            -59465867 -812257284 -847904906</internalNodes>
          <leafValues>
            -8.3486241102218628e-01 6.2710565328598022e-01</leafValues></_>
        <_>
          <internalNodes>
            0 -1 18 -69211956 -76023435 -370042627 1909849278
            -1429530488 -67260417 -1429209346 -67108865</internalNodes>
          <leafValues>
            -7.5038868188858032e-01 6.2518543004989624e-01</leafValues></_>
        <_>
          <internalNodes>
            0 -1 0 -1429274913 -893985078 -712056172 -22100342 -11541089
            -85268605 -36704801 -268515593</internalNodes>
          <leafValues>
            -7.5000315904617310e-01 6.4690679311752319e-01</leafValues></_>
        <_>
          <internalNodes>
            0 -1 7 -3325 -22745 1161246465 2012735259 1868547071
            -2014138717 1157612955 1207952335</internalNodes>
          <leafValues>
            -8.4282088279724121e-01 5.5417424440383911e-01</leafValues></_></weakClassifiers></_>
    <!-- stage 8 -->
    <_>
      <maxWeakCount>4</maxWeakCount>
      <stageThreshold>-1.9726108014583588e-01</stageThreshold>
      <weakClassifiers>
        <_>
          <internalNodes>
            0 -1 24 -285219003 -268435457 -403970607 -6295845 -179339507
            -335554577 -1085519 -1048671</internalNodes>
          <leafValues>
            -7.3302751779556274e-01 6.6750210523605347e-01</leafValues></_>
        <_>
          <internalNodes>
            0 -1 6 -61994322 -9056801 -1560494369 -83887977 2147175678
            -8418276 -151191809 -25731365</internalNodes>
          <leafValues>
            -8.1433486938476562e-01 5.8244526386260986e-01</leafValues></_>
        <_>
          <internalNodes>
            0 -1 2 -578565903 -1107489547 -1344237569 -318112530
            -104337673 1073155303 -33707781 -20449025</internalNodes>
          <leafValues>
            -6.8806934356689453e-01 6.8394690752029419e-01</leafValues></_>
        <_>
          <internalNodes>
            0 -1 22 -285229377 -285269483 -1426780451 -84472811
            720366335 -356568018 754707711 -499123617</internalNodes>
          <leafValues>
            -7.3062574863433838e-01 6.6997671127319336e-01</leafValues></_></weakClassifiers></_></stages>
  <features>
    <_>
      <rect>
        0 0 1 8</rect></_>
    <_>
      <rect>
        0 8 5 3</rect></_>
    <_>
      <rect>
        0 14 6 3</rect></_>
    <_>
      <rect>
        0 21 8 1</rect></_>
    <_>
      <rect>
        1 1 7 1</rect></_>
    <_>
      <rect>
        2 0 5 3</rect></_>
    <_>
      <rect>
        2 19 4 1</rect></_>
    <_>
      <rect>
        3 6 2 3</rect></_>
    <_>
      <rect>
        3 13 6 3</rect></_>
    <_>
      <rect>
        6 7 3 2</rect></_>
    <_>
      <rect>
        6 10 2 3</rect></_>
    <_>
      <rect>
        6 12 4 3</rect></_>
    <_>
      <rect>
        8 18 3 2</rect></_>
    <_>
      <rect>
        9 6 3 2</rect></_>
    <_>
      <rect>
        9 7 3 2</rect></_>
    <_>
      <rect>
        9 8 2 2</rect></_>
    <_>
      <rect>
        9 10 2 1</rect></_>
    <_>
      <rect>
        10 18 4 1</rect></_>
    <_>
      <rect>
        11 3 4 2</rect></_>
    <_>
      <rect>
        12 6 2 3</rect></_>
    <_>
      <rect>
        12 10 2 3</rect></_>
    <_>
      <rect>
        13 8 2 3</rect></_>
    <_>
      <rect>
        16 6 1 3</rect></_>
    <_>
      <rect>
        18 5 2 4</rect></_>
    <_>
      <rect>
        21 4 1 6</rect></_></features></cascade>
</opencv_storage>
